digraph Tree {
node [shape=box, style="filled, rounded", color="black", fontname="helvetica"] ;
edge [fontname="helvetica"] ;
0 [label="sepal length (cm) <= 5.55\ngini = 0.66\nsamples = 97\nvalue = [39, 56, 55]\nclass = versicolor", fillcolor="#fdfffe"] ;
1 [label="petal width (cm) <= 0.75\ngini = 0.4\nsamples = 33\nvalue = [35, 10, 2]\nclass = setosa", fillcolor="#edaa79"] ;
0 -> 1 [labeldistance=2.5, labelangle=45, headlabel="True"] ;
2 [label="gini = 0.0\nsamples = 26\nvalue = [35, 0, 0]\nclass = setosa", fillcolor="#e58139"] ;
1 -> 2 ;
3 [label="sepal length (cm) <= 4.95\ngini = 0.28\nsamples = 7\nvalue = [0, 10, 2]\nclass = versicolor", fillcolor="#61ea9a"] ;
1 -> 3 ;
4 [label="sepal width (cm) <= 2.45\ngini = 0.44\nsamples = 2\nvalue = [0, 1, 2]\nclass = virginica", fillcolor="#c09cf2"] ;
3 -> 4 ;
5 [label="gini = 0.0\nsamples = 1\nvalue = [0, 1, 0]\nclass = versicolor", fillcolor="#39e581"] ;
4 -> 5 ;
6 [label="gini = 0.0\nsamples = 1\nvalue = [0, 0, 2]\nclass = virginica", fillcolor="#8139e5"] ;
4 -> 6 ;
7 [label="gini = 0.0\nsamples = 5\nvalue = [0, 9, 0]\nclass = versicolor", fillcolor="#39e581"] ;
3 -> 7 ;
8 [label="petal length (cm) <= 4.95\ngini = 0.53\nsamples = 64\nvalue = [4, 46, 53]\nclass = virginica", fillcolor="#f0e7fc"] ;
0 -> 8 [labeldistance=2.5, labelangle=-45, headlabel="False"] ;
9 [label="petal width (cm) <= 0.65\ngini = 0.22\nsamples = 32\nvalue = [4, 44, 2]\nclass = versicolor", fillcolor="#53e891"] ;
8 -> 9 ;
10 [label="gini = 0.0\nsamples = 2\nvalue = [4, 0, 0]\nclass = setosa", fillcolor="#e58139"] ;
9 -> 10 ;
11 [label="petal width (cm) <= 1.7\ngini = 0.08\nsamples = 30\nvalue = [0, 44, 2]\nclass = versicolor", fillcolor="#42e687"] ;
9 -> 11 ;
12 [label="gini = 0.0\nsamples = 27\nvalue = [0, 43, 0]\nclass = versicolor", fillcolor="#39e581"] ;
11 -> 12 ;
13 [label="sepal width (cm) <= 3.1\ngini = 0.44\nsamples = 3\nvalue = [0, 1, 2]\nclass = virginica", fillcolor="#c09cf2"] ;
11 -> 13 ;
14 [label="gini = 0.0\nsamples = 2\nvalue = [0, 0, 2]\nclass = virginica", fillcolor="#8139e5"] ;
13 -> 14 ;
15 [label="gini = 0.0\nsamples = 1\nvalue = [0, 1, 0]\nclass = versicolor", fillcolor="#39e581"] ;
13 -> 15 ;
16 [label="petal width (cm) <= 1.75\ngini = 0.07\nsamples = 32\nvalue = [0, 2, 51]\nclass = virginica", fillcolor="#8641e6"] ;
8 -> 16 ;
17 [label="petal width (cm) <= 1.55\ngini = 0.35\nsamples = 6\nvalue = [0, 2, 7]\nclass = virginica", fillcolor="#a572ec"] ;
16 -> 17 ;
18 [label="gini = 0.0\nsamples = 3\nvalue = [0, 0, 6]\nclass = virginica", fillcolor="#8139e5"] ;
17 -> 18 ;
19 [label="sepal length (cm) <= 6.95\ngini = 0.44\nsamples = 3\nvalue = [0, 2, 1]\nclass = versicolor", fillcolor="#9cf2c0"] ;
17 -> 19 ;
20 [label="gini = 0.0\nsamples = 2\nvalue = [0, 2, 0]\nclass = versicolor", fillcolor="#39e581"] ;
19 -> 20 ;
21 [label="gini = 0.0\nsamples = 1\nvalue = [0, 0, 1]\nclass = virginica", fillcolor="#8139e5"] ;
19 -> 21 ;
22 [label="gini = 0.0\nsamples = 26\nvalue = [0, 0, 44]\nclass = virginica", fillcolor="#8139e5"] ;
16 -> 22 ;
}